<?xml version="1.0"?>
<!--
    Tree-based 20x20 left eye detector.
    The detector is trained by 6665 positive samples from FERET, VALID and BioID face databases. 
    Created by Shiqi Yu (http://yushiqi.cn/research/eyedetection).

////////////////////////////////////////////////////////////////////////////////////////

  IMPORTANT: READ BEFORE DOWNLOADING, COPYING, INSTALLING OR USING.

  By downloading, copying, installing or using the software you agree to this license.
  If you do not agree to this license, do not download, install,
  copy or use the software.


                        Intel License Agreement
                For Open Source Computer Vision Library

 Copyright (C) 2000, Intel Corporation, all rights reserved.
 Third party copyrights are property of their respective owners.

 Redistribution and use in source and binary forms, with or without modification,
 are permitted provided that the following conditions are met:

   * Redistribution's of source code must retain the above copyright notice,
     this list of conditions and the following disclaimer.

   * Redistribution's in binary form must reproduce the above copyright notice,
     this list of conditions and the following disclaimer in the documentation
     and/or other materials provided with the distribution.

   * The name of Intel Corporation may not be used to endorse or promote products
     derived from this software without specific prior written permission.

 This software is provided by the copyright holders and contributors "as is" and
 any express or implied warranties, including, but not limited to, the implied
 warranties of merchantability and fitness for a particular purpose are disclaimed.
 In no event shall the Intel Corporation or contributors be liable for any direct,
 indirect, incidental, special, exemplary, or consequential damages
 (including, but not limited to, procurement of substitute goods or services;
 loss of use, data, or profits; or business interruption) however caused
 and on any theory of liability, whether in contract, strict liability,
 or tort (including negligence or otherwise) arising in any way out of
 the use of this software, even if advised of the possibility of such damage.
-->
<opencv_storage>
<cascade type_id="opencv-cascade-classifier"><stageType>BOOST</stageType>
  <featureType>HAAR</featureType>
  <height>20</height>
  <width>20</width>
  <stageParams>
    <maxWeakCount>33</maxWeakCount></stageParams>
  <featureParams>
    <maxCatCount>0</maxCatCount></featureParams>
  <stageNum>20</stageNum>
  <stages>
    <_>
      <maxWeakCount>5</maxWeakCount>
      <stageThreshold>-2.3924100399017334e+00</stageThreshold>
      <weakClassifiers>
        <_>
          <internalNodes>
            0 1 0 2.7325989678502083e-02 -1 -2 1 -7.0568458177149296e-03</internalNodes>
          <leafValues>
            -9.0600621700286865e-01 9.3385708332061768e-01
            -4.5859959721565247e-01</leafValues></_>
        <_>
          <internalNodes>
            0 1 2 -1.2538699805736542e-01 -1 -2 3
            -1.1487299948930740e-01</internalNodes>
          <leafValues>
            7.2463721036911011e-01 5.3034168481826782e-01
            -8.3221220970153809e-01</leafValues></_>
        <_>
          <internalNodes>
            0 1 4 -5.8309938758611679e-02 -1 -2 5
            -1.7684370279312134e-02</internalNodes>
          <leafValues>
            6.5408891439437866e-01 2.9482871294021606e-01
            -7.4809581041336060e-01</leafValues></_>
        <_>
          <internalNodes>
            0 1 6 3.5937170032411814e-03 -1 -2 7 -1.3436110457405448e-03</internalNodes>
          <leafValues>
            -5.0303918123245239e-01 6.5995341539382935e-01
            -5.5740857124328613e-01</leafValues></_>
        <_>
          <internalNodes>
            1 0 8 -2.1795940119773149e-03 -1 -2 9 1.1514870449900627e-02</internalNodes>
          <leafValues>
            -4.2016351222991943e-01 5.9694331884384155e-01
            -8.0508047342300415e-01</leafValues></_></weakClassifiers></_>
    <_>
      <maxWeakCount>7</maxWeakCount>
      <stageThreshold>-2.6498730182647705e+00</stageThreshold>
      <weakClassifiers>
        <_>
          <internalNodes>
            1 0 10 -2.2485560178756714e-01 -1 -2 11
            -9.6008004620671272e-03</internalNodes>
          <leafValues>
            -8.1363201141357422e-01 9.0863138437271118e-01
            -3.2208970189094543e-01</leafValues></_>
        <_>
          <internalNodes>
            0 1 12 7.4219167232513428e-02 -1 -2 13
            -5.3165741264820099e-03</internalNodes>
          <leafValues>
            -7.5329452753067017e-01 8.6339497566223145e-01
            -3.3463571220636368e-02</leafValues></_>
        <_>
          <internalNodes>
            1 0 14 -2.1913449745625257e-03 -1 -2 15
            1.1800959706306458e-02</internalNodes>
          <leafValues>
            -5.5720347166061401e-01 -3.2359680533409119e-01
            6.4163821935653687e-01</leafValues></_>
        <_>
          <internalNodes>
            1 0 16 -7.6179709285497665e-03 -1 -2 17
            -9.0587511658668518e-03</internalNodes>
          <leafValues>
            -5.3167867660522461e-01 -7.3611450195312500e-01
            5.5660772323608398e-01</leafValues></_>
        <_>
          <internalNodes>
            1 0 18 -4.9959779717028141e-03 -1 -2 19
            8.0803930759429932e-03</internalNodes>
          <leafValues>
            -4.1476911306381226e-01 5.9278357028961182e-01
            -6.7384922504425049e-01</leafValues></_>
        <_>
          <internalNodes>
            0 1 20 1.9909010734409094e-03 -1 -2 21
            1.6845749923959374e-03</internalNodes>
          <leafValues>
            -4.2145928740501404e-01 5.4679220914840698e-01
            -7.5099450349807739e-01</leafValues></_>
        <_>
          <internalNodes>
            1 0 22 -5.0781872123479843e-03 -1 -2 23
            2.6645609177649021e-03</internalNodes>
          <leafValues>
            -3.9899548888206482e-01 5.8940601348876953e-01
            -4.6778041124343872e-01</leafValues></_></weakClassifiers></_>
    <_>
      <maxWeakCount>8</maxWeakCount>
      <stageThreshold>-2.3828399181365967e+00</stageThreshold>
      <weakClassifiers>
        <_>
          <internalNodes>
            1 0 24 -2.5301438570022583e-01 -1 -2 25
            2.9663778841495514e-03</internalNodes>
          <leafValues>
            -7.5402587652206421e-01 -3.5279649496078491e-01
            8.7992298603057861e-01</leafValues></_>
        <_>
          <internalNodes>
            1 0 26 -4.7127649188041687e-02 -1 -2 27
            1.9500750349834561e-03</internalNodes>
          <leafValues>
            -5.2234899997711182e-01 -3.0379909276962280e-01
            7.5204378366470337e-01</leafValues></_>
        <_>
          <internalNodes>
            0 1 28 -7.1481026709079742e-02 -1 -2 29
            2.2189730405807495e-01</internalNodes>
          <leafValues>
            6.5841901302337646e-01 -6.0907202959060669e-01
            5.6842160224914551e-01</leafValues></_>
        <_>
          <internalNodes>
            0 1 30 3.3842820674180984e-02 -1 -2 31
            -5.1714561413973570e-04</internalNodes>
          <leafValues>
            -6.4311647415161133e-01 5.4620361328125000e-01
            -3.9984148740768433e-01</leafValues></_>
        <_>
          <internalNodes>
            1 0 32 -3.4458211157470942e-03 -1 -2 33
            2.4395729415118694e-03</internalNodes>
          <leafValues>
            -4.5636838674545288e-01 4.7798189520835876e-01
            -9.1247087717056274e-01</leafValues></_>
        <_>
          <internalNodes>
            1 0 34 2.1385070867836475e-03 -1 -2 35
            1.8324409611523151e-03</internalNodes>
          <leafValues>
            -8.3617758750915527e-01 3.3462798595428467e-01
            -7.5008547306060791e-01</leafValues></_>
        <_>
          <internalNodes>
            1 0 36 1.1167610064148903e-03 -1 -2 37
            9.9106997367925942e-05</internalNodes>
          <leafValues>
            -6.9083797931671143e-01 -3.4561330080032349e-01
            4.1183179616928101e-01</leafValues></_>
        <_>
          <internalNodes>
            1 0 38 1.5447770245373249e-02 -1 -2 39
            -3.2244939357042313e-02</internalNodes>
          <leafValues>
            3.6980190873146057e-01 6.1112838983535767e-01
            -5.5685341358184814e-01</leafValues></_></weakClassifiers></_>
    <_>
      <maxWeakCount>9</maxWeakCount>
      <stageThreshold>-2.1312201023101807e+00</stageThreshold>
      <weakClassifiers>
        <_>
